1.885594613850116730e-02
-4.013566672801971436e-02
-4.269833490252494812e-02
-4.618110135197639465e-02
-3.312479704618453979e-02
-7.473519537597894669e-03
-2.448280155658721924e-02
-7.416295353323221207e-03
-2.657765522599220276e-02
-4.382063820958137512e-02
-3.079831786453723907e-02
-3.316325321793556213e-02
-3.690266609191894531e-02
3.855690732598304749e-02
3.528115525841712952e-02
-8.682775311172008514e-03
1.247128751128911972e-02
-6.664517801254987717e-03
1.784104667603969574e-02
-3.077718056738376617e-02
3.715325891971588135e-02
-3.098190389573574066e-02
-2.124291472136974335e-02
1.626183651387691498e-02
-3.091788105666637421e-02
-6.776206195354461670e-03
-1.393720880150794983e-02
-1.651157625019550323e-02
-3.471527621150016785e-02
1.022998988628387451e-02
-1.584073901176452637e-02
4.296372830867767334e-02
-2.162711508572101593e-02
-1.380068250000476837e-02
-2.708071842789649963e-02
4.971431940793991089e-02
-2.265369147062301636e-02
-2.688815630972385406e-02
-3.828753903508186340e-02
-2.908637002110481262e-02
5.683428049087524414e-02
-4.747658222913742065e-02
-3.091297484934329987e-02
-4.562112316489219666e-02
-3.632191568613052368e-02
-8.078005164861679077e-03
1.564367488026618958e-02
-2.463096939027309418e-02
-4.635294526815414429e-02
-4.484613239765167236e-02
2.685271902009844780e-03
-2.722086012363433838e-02
-2.582747489213943481e-02
-2.584656700491905212e-02
-5.204978585243225098e-02
-2.720012888312339783e-02
1.500298082828521729e-02
-1.234265975654125214e-02
5.735557526350021362e-02
-7.538339588791131973e-03
-5.687407404184341431e-02
1.373146078549325466e-03
-4.892300814390182495e-02
1.262483000755310059e-02
-4.631241038441658020e-02
-2.058622613549232483e-02
-3.067387081682682037e-02
2.527077123522758484e-02
-6.478968262672424316e-02
-3.046656027436256409e-02
-9.331993642263114452e-04
-5.441449582576751709e-02
-5.142154172062873840e-02
2.210767380893230438e-02
3.493839176371693611e-03
-4.599161073565483093e-02
-5.088879726827144623e-03
-9.697237610816955566e-02
-4.088256508111953735e-02
-8.033230155706405640e-02
-4.469737038016319275e-02
-1.752463728189468384e-02
2.738416567444801331e-02
5.762020871043205261e-02
-7.707799226045608521e-02
-2.414790913462638855e-03
-1.575973443686962128e-02
7.351664453744888306e-02
-8.395999670028686523e-03
-1.920065470039844513e-02
-4.990611691027879715e-03
-3.617216274142265320e-02
-4.679584503173828125e-02
2.302615530788898468e-02
-5.798507109284400940e-02
1.235047634690999985e-02
-1.315384078770875931e-02
-2.301723323762416840e-02
3.158517554402351379e-02
-2.762935124337673187e-02
-1.074828207492828369e-02
-5.933583527803421021e-02
-6.977430079132318497e-03
1.990469731390476227e-02
3.551556961610913277e-03
-2.923214994370937347e-02
-1.342884916812181473e-02
1.172957755625247955e-02
-2.510252967476844788e-02
-8.803987875580787659e-03
-2.889198251068592072e-02
-4.132859408855438232e-03
-3.868370875716209412e-02
-1.352419517934322357e-02
-8.077557384967803955e-02
-9.344009682536125183e-03
5.015476793050765991e-02
-2.425261214375495911e-02
-6.450669467449188232e-02
-6.339345593005418777e-03
6.243247911334037781e-02
-7.344179786741733551e-03
-2.399881184101104736e-02
-7.736667245626449585e-02
-3.096600994467735291e-02
-1.689839549362659454e-02
-1.764692179858684540e-02
-3.689277917146682739e-02
-4.128882288932800293e-02
-1.554754097014665604e-02
-8.924837224185466766e-03
6.383834779262542725e-02
-2.961235493421554565e-02
-6.193079520016908646e-03
-1.829722896218299866e-02
3.037135489284992218e-02
-2.359024621546268463e-02
1.721173757687211037e-03
-1.223599016666412354e-01
5.238629877567291260e-03
-5.399239063262939453e-02
-1.140739023685455322e-02
-1.949122548103332520e-02
-8.424250409007072449e-03
2.141059003770351410e-02
-3.513779491186141968e-02
-1.438868604600429535e-02
5.783767253160476685e-02
-1.597516424953937531e-02
1.580234430730342865e-02
-2.867777273058891296e-02
-2.120669558644294739e-02
-3.200691938400268555e-02
-1.004574075341224670e-02
-5.522954836487770081e-02
-3.308865800499916077e-02
-3.576661273837089539e-02
-9.679289162158966064e-02
-3.310178220272064209e-02
-3.754985705018043518e-02
-2.018309757113456726e-02
-1.566042006015777588e-02
-2.152096480131149292e-02
-7.158017158508300781e-02
-1.075716130435466766e-02
-2.994444034993648529e-02
-5.046772211790084839e-02
-1.034973934292793274e-02
-2.625579200685024261e-02
-6.390779465436935425e-02
-7.070726901292800903e-02
-2.674717642366886139e-02
-2.086190693080425262e-02
-2.989601343870162964e-02
-7.150723040103912354e-02
-5.221312493085861206e-02
-2.216854318976402283e-02
-4.712821915745735168e-02
-3.209543600678443909e-02
-2.961535193026065826e-02
-2.260013110935688019e-02
-1.310077011585235596e-01
-5.494375713169574738e-03
-5.185179761610925198e-04
-4.895563423633575439e-02
-3.397069126367568970e-02
3.877282142639160156e-02
-1.002053916454315186e-02
-6.643005460500717163e-02
-3.449397161602973938e-02
-1.289053820073604584e-02
-2.600793354213237762e-02
2.787722274661064148e-02
-3.615625947713851929e-02
-6.510090827941894531e-02
3.396380320191383362e-02
-3.017763048410415649e-02
-3.603794053196907043e-02
1.465919311158359051e-03
-6.597141176462173462e-02
4.078601021319627762e-03
-3.546927124261856079e-02
1.122941169887781143e-02
-1.209272723644971848e-02
-2.547226473689079285e-02
-7.632313668727874756e-02
-4.449506103992462158e-02
4.584870487451553345e-02
-5.294504016637802124e-02
-2.123202569782733917e-02
2.667190041393041611e-03
-4.472552984952926636e-02
-4.105646908283233643e-02
-5.043039843440055847e-02
-1.132036838680505753e-02
-4.782937094569206238e-02
1.047802343964576721e-01
-2.714257873594760895e-02
8.449110202491283417e-03
-7.911781966686248779e-02
7.388812955468893051e-03
-2.229538559913635254e-02
-5.837108194828033447e-02
-7.296774536371231079e-02
-3.635564073920249939e-02
-4.930817708373069763e-02
3.930901736021041870e-02
-1.089651212096214294e-01
-1.863216049969196320e-02
9.777484461665153503e-03
-1.888874359428882599e-02
-1.604505255818367004e-02
-4.896513419225811958e-04
-6.304011214524507523e-03
5.174571997486054897e-04
-3.621908649802207947e-02
-2.468442358076572418e-02
-2.578184939920902252e-02
-4.404437914490699768e-02
-5.371101666241884232e-03
-1.220554765313863754e-02
-6.547377444803714752e-03
8.593481779098510742e-02
2.960666082799434662e-02
-9.750208258628845215e-02
1.983838342130184174e-02
-4.226892441511154175e-02
1.545996032655239105e-02
4.814959131181240082e-03
1.377062778919935226e-02
-3.231519460678100586e-02
-1.463672146201133728e-02
-1.265912596136331558e-02
-2.802421338856220245e-02
-5.787786841392517090e-02
-3.581939637660980225e-02
-3.226784989237785339e-02
-1.581469736993312836e-02
4.048918187618255615e-02
-2.534972503781318665e-02
-5.929171293973922729e-02
7.728658150881528854e-03
2.363790199160575867e-02
1.179828401654958725e-02
1.951978774741292000e-03
-3.481431305408477783e-02
7.996774464845657349e-02
-2.846040390431880951e-02
-9.807467460632324219e-02
-8.032368868589401245e-02
-2.817094512283802032e-02
-2.953025512397289276e-02
-2.605596557259559631e-02
-1.275515556335449219e-02
-2.601540833711624146e-02
-1.859344728291034698e-02
-2.456236071884632111e-02
-3.117894753813743591e-02
-5.982904694974422455e-03
-3.014250425621867180e-03
-3.382960334420204163e-02
-1.123831793665885925e-02
-2.100115828216075897e-02
-3.764561563730239868e-02
-3.534802421927452087e-02
-3.202102705836296082e-02
-9.861979633569717407e-03
-3.208671137690544128e-02
-3.992543369531631470e-02
-2.877355553209781647e-02
2.515276893973350525e-02
-1.473945565521717072e-02
8.992972783744335175e-03
-2.802034281194210052e-02
-2.234380692243576050e-02
-5.400311201810836792e-02
-1.337660197168588638e-02
-6.606089323759078979e-02
-1.598409004509449005e-02
4.186070524156093597e-03
-3.807199746370315552e-02
-9.274300187826156616e-03
1.133410539478063583e-02
-2.882997319102287292e-02
-1.188051886856555939e-02
-2.455106750130653381e-02
-2.968255057930946350e-02
-3.472144529223442078e-02
-3.072022460401058197e-02
1.865143072791397572e-03
-1.499632280319929123e-02
-3.234166884794831276e-03
-2.735208161175251007e-02
-3.259121254086494446e-02
-1.881849952042102814e-02
-3.326856344938278198e-02
-2.746256254613399506e-02
-1.145072430372238159e-01
-3.758479654788970947e-02
-4.738549888134002686e-02
-6.250222679227590561e-03
-2.497158944606781006e-02
-1.012849882245063782e-01
2.737384056672453880e-03
-3.172709606587886810e-03
3.040856495499610901e-02
-8.116336911916732788e-02
4.670643433928489685e-02
-1.325770746916532516e-02
-3.892678022384643555e-02
-2.577599510550498962e-02
1.174791995435953140e-02
-2.826824411749839783e-02
-6.962776929140090942e-02
-2.999337576329708099e-02
4.811695776879787445e-03
-2.453223057091236115e-02
-4.985840991139411926e-02
-2.093768492341041565e-02
-7.348153274506330490e-03
-5.801527947187423706e-02
-1.996325142681598663e-02
-3.650926426053047180e-02
-8.927951008081436157e-02
3.262566775083541870e-02
-3.298835456371307373e-02
-2.292407304048538208e-02
6.086999201215803623e-04
-2.222631312906742096e-02
-2.458469383418560028e-02
-3.883798792958259583e-02
-2.769879437983036041e-02
-4.866323247551918030e-02
-5.268493667244911194e-03
-1.478208415210247040e-02
-2.697146311402320862e-02
-4.190110787749290466e-02
-6.426853686571121216e-02
-3.468159586191177368e-02
-1.893482916057109833e-02
-2.797211892902851105e-02
-3.415080532431602478e-02
-8.397723548114299774e-03
-2.007070928812026978e-03
-1.660211384296417236e-02
3.798700403422117233e-03
3.054751083254814148e-02
1.744568161666393280e-02
-3.085808455944061279e-02
-8.541300892829895020e-03
-4.396499693393707275e-02
-4.420049488544464111e-03
-6.368874106556177139e-03
-3.093275614082813263e-02
-2.181267552077770233e-02
4.683165252208709717e-02
-2.347401529550552368e-02
-2.993792481720447540e-02
-6.158639490604400635e-02
-5.377539619803428650e-02
8.968429639935493469e-03
-6.765023339539766312e-03
-3.526053577661514282e-02
2.960371412336826324e-02
