1.940402239561080933e-01
1.534401066601276398e-02
-2.175883650779724121e-01
3.102025389671325684e-02
-1.793149672448635101e-02
-1.552356928586959839e-01
-2.010520547628402710e-01
-1.558128446340560913e-01
1.353616942651569843e-03
-2.587135136127471924e-01
3.195942565798759460e-02
1.484708338975906372e-01
-1.346693485975265503e-01
-1.065496727824211121e-01
-1.026833802461624146e-01
2.391206026077270508e-01
-5.524982698261737823e-03
-2.019076421856880188e-02
2.427160181105136871e-02
-1.226116120815277100e-01
-4.182262718677520752e-02
7.858841679990291595e-03
-6.335141602903604507e-03
3.521658107638359070e-02
-1.551760882139205933e-01
-4.417534172534942627e-02
-5.696472153067588806e-02
1.511657238006591797e-02
-1.576897501945495605e-01
1.576775684952735901e-02
-2.109142094850540161e-01
7.223822921514511108e-02
5.827785283327102661e-02
2.207377254962921143e-01
-1.141145918518304825e-02
8.882831782102584839e-03
-1.377301067113876343e-01
-7.680436968803405762e-02
-1.073257718235254288e-02
-8.813536725938320160e-03
-1.574445366859436035e-01
-1.198971495032310486e-01
-1.037959882523864508e-04
-1.564258933067321777e-01
7.668023556470870972e-02
-5.877654254436492920e-02
-4.041714221239089966e-02
3.644573315978050232e-02
3.112639300525188446e-02
-5.509294103831052780e-03
1.030546650290489197e-01
-3.346302509307861328e-01
-2.402337640523910522e-01
-1.395001709461212158e-01
1.403131987899541855e-02
-1.125247925519943237e-01
-5.253661796450614929e-02
-1.438025981187820435e-01
7.973805069923400879e-02
7.449581474065780640e-02
-1.091996282339096069e-01
2.404437065124511719e-01
7.636629045009613037e-02
1.593042016029357910e-01
1.582635939121246338e-02
-1.060595083981752396e-02
-9.193987585604190826e-03
-1.716132164001464844e-01
1.067405417561531067e-01
-1.728142201900482178e-01
-2.034750021994113922e-02
-2.137339115142822266e-02
-1.861518062651157379e-02
-9.455445106141269207e-04
-1.572625711560249329e-02
-4.889357835054397583e-03
1.764565408229827881e-01
1.227829828858375549e-01
2.194510027766227722e-02
8.057753741741180420e-02
-1.312828660011291504e-01
-2.701627016067504883e-01
5.672675091773271561e-03
1.539655625820159912e-01
1.753812469542026520e-02
5.009855329990386963e-02
1.345312744379043579e-01
4.487796127796173096e-02
1.697095334529876709e-01
-2.503610551357269287e-01
-7.086975127458572388e-02
1.369266305118799210e-02
-1.040150523185729980e-01
3.199712932109832764e-02
-1.624969840049743652e-01
-2.331355661153793335e-01
