5.187388742342591286e-04
8.394967764616012573e-03
-1.267880760133266449e-02
-4.114755615592002869e-02
-5.070366710424423218e-02
-1.047991290688514709e-01
-5.675360187888145447e-02
-2.834922634065151215e-02
-3.525605797767639160e-02
-5.631561204791069031e-02
7.009654771536588669e-03
-3.876912593841552734e-02
-4.668076708912849426e-02
5.549599975347518921e-02
6.951697915792465210e-02
-1.560255978256464005e-02
-5.547409132122993469e-02
-2.231758646667003632e-02
-1.826803386211395264e-02
-2.178716659545898438e-02
-1.202505268156528473e-02
-2.760466746985912323e-02
-1.190939694643020630e-01
-3.753381595015525818e-02
-3.679713234305381775e-02
2.410925365984439850e-02
-5.171776562929153442e-02
3.544545918703079224e-02
7.016736268997192383e-02
-3.005576319992542267e-02
-1.799385249614715576e-02
-4.236018657684326172e-02
1.696859672665596008e-02
-2.450581640005111694e-02
2.695904299616813660e-02
-9.735859930515289307e-02
-1.075112074613571167e-02
-3.042837604880332947e-02
-1.462959218770265579e-02
2.185049839317798615e-02
-4.731603711843490601e-02
-2.418794296681880951e-02
3.270942345261573792e-02
-4.830032959580421448e-02
3.360184654593467712e-02
-8.996855467557907104e-02
-1.995301060378551483e-02
-2.376420050859451294e-02
-6.514880340546369553e-03
6.499006412923336029e-03
-9.424109756946563721e-02
-1.439465135335922241e-01
-4.086774960160255432e-02
-5.781000107526779175e-02
-4.882888868451118469e-02
-2.981624938547611237e-02
-2.269900776445865631e-02
-3.808322176337242126e-02
1.139182411134243011e-02
-2.594911120831966400e-02
-3.504800796508789062e-02
-2.116550132632255554e-02
2.151787281036376953e-02
-1.601982302963733673e-02
-1.492236740887165070e-02
-7.557146996259689331e-02
-5.380484461784362793e-02
1.163655444979667664e-01
1.085840049199759960e-03
-1.161207258701324463e-01
2.515829727053642273e-02
-3.168854117393493652e-02
-4.556834325194358826e-02
-2.652633003890514374e-02
-5.886572226881980896e-02
1.202948112040758133e-02
-6.921135634183883667e-02
-3.808575868606567383e-02
-1.498640980571508408e-02
-1.611844077706336975e-02
-2.826756425201892853e-02
2.429077774286270142e-02
-1.187985483556985855e-02
-1.240593940019607544e-02
-9.379924274981021881e-03
-5.157194659113883972e-02
-3.804633021354675293e-02
-3.158417716622352600e-02
-4.140857234597206116e-02
-3.782600164413452148e-02
-5.777590442448854446e-03
-6.189592927694320679e-02
-2.577761001884937286e-02
-4.955273866653442383e-02
-4.077726602554321289e-02
-4.012066870927810669e-02
7.672851905226707458e-03
7.863171398639678955e-02
1.021151319146156311e-01
-6.854761391878128052e-03
8.007307350635528564e-02
2.412527054548263550e-02
-1.147382333874702454e-01
5.624121055006980896e-02
-9.954619221389293671e-03
-1.229675710201263428e-01
-3.176480159163475037e-02
-6.043189391493797302e-02
-1.842745393514633179e-02
-3.680229187011718750e-02
-3.623105213046073914e-02
3.357891365885734558e-02
3.176847845315933228e-02
-2.465561404824256897e-02
-8.208272606134414673e-02
-3.846472874283790588e-02
-2.049912698566913605e-02
-4.258057475090026855e-02
-2.085568569600582123e-02
1.049016416072845459e-01
2.158856764435768127e-02
-3.683565929532051086e-02
-2.600585669279098511e-02
-2.498934790492057800e-02
3.042917000129818916e-03
-7.330810278654098511e-02
-2.441436052322387695e-02
-7.813853025436401367e-02
-1.813093014061450958e-02
-4.867709800601005554e-02
-2.540712431073188782e-02
3.027728758752346039e-02
-1.538569480180740356e-02
2.395420335233211517e-02
-6.393787264823913574e-02
-1.046325359493494034e-02
-1.381499320268630981e-02
-2.673454582691192627e-03
-1.137676741927862167e-02
-3.201157972216606140e-02
-1.192993018776178360e-02
-1.752110756933689117e-02
-2.743128314614295959e-02
-1.244650408625602722e-01
-2.535707503557205200e-02
-1.987970620393753052e-02
-6.694400217384099960e-03
-4.758159071207046509e-02
-1.261033210903406143e-02
2.602520398795604706e-02
-4.178347811102867126e-02
-3.900394961237907410e-02
3.708096221089363098e-02
-4.742233082652091980e-02
2.402251213788986206e-02
9.760334342718124390e-02
5.987007170915603638e-02
-2.387214452028274536e-02
-5.030927248299121857e-03
-3.070709668099880219e-02
1.843647658824920654e-02
-1.303435862064361572e-02
-6.095155701041221619e-02
-4.410771653056144714e-02
-2.229242399334907532e-02
-1.206074468791484833e-02
-4.473057761788368225e-02
8.823318406939506531e-03
-5.517245829105377197e-02
1.179736703634262085e-01
6.130413152277469635e-03
-5.156651139259338379e-02
-4.270355775952339172e-02
5.735970661044120789e-02
-2.824028581380844116e-02
9.088299237191677094e-03
-1.092660427093505859e-02
5.599505826830863953e-02
-4.586582630872726440e-02
7.920739799737930298e-02
-1.060128305107355118e-02
-3.311819583177566528e-02
-4.501263611018657684e-03
-2.781266905367374420e-02
-2.497094683349132538e-02
-4.046177025884389877e-03
3.396594524383544922e-02
-1.104535385966300964e-01
-2.953534573316574097e-02
-2.127226442098617554e-02
-5.006027966737747192e-02
-2.988889627158641815e-02
-1.444393023848533630e-02
-9.662760049104690552e-02
-3.247224912047386169e-02
3.864663094282150269e-02
-1.660827547311782837e-02
9.867966175079345703e-03
1.359572559595108032e-01
-8.254443109035491943e-02
-5.371267721056938171e-02
8.424925059080123901e-02
-2.124014496803283691e-02
-4.809739068150520325e-02
-1.115534454584121704e-02
3.229134902358055115e-02
-3.596016392111778259e-02
-3.883923217654228210e-02
-3.401473537087440491e-02
-2.804346755146980286e-02
1.255034282803535461e-02
-6.174408271908760071e-02
-4.770153760910034180e-02
-3.385155647993087769e-02
1.829300448298454285e-02
-3.198167309165000916e-02
-1.235598511993885040e-02
-4.839509725570678711e-02
-3.117606975138187408e-02
4.612970724701881409e-02
-2.059676311910152435e-02
-1.518617663532495499e-02
-2.320790104568004608e-02
-3.471345454454421997e-02
-9.449709951877593994e-02
-2.241406030952930450e-02
-3.593991324305534363e-02
2.167551964521408081e-02
-2.418405562639236450e-02
-5.550653859972953796e-02
-2.189815975725650787e-02
-3.934681788086891174e-02
-9.968606382608413696e-02
-5.338688194751739502e-02
-5.018137395381927490e-03
-1.530049648135900497e-02
1.063133822754025459e-03
-6.006180122494697571e-02
-1.674310863018035889e-02
-3.339026495814323425e-02
-9.765771217644214630e-03
-2.603037841618061066e-02
2.528172731399536133e-02
6.194102577865123749e-03
2.011790871620178223e-02
3.961545974016189575e-02
-8.203391917049884796e-03
5.185432732105255127e-02
1.532125473022460938e-02
-5.667560733854770660e-03
-3.243749216198921204e-02
4.901771992444992065e-02
2.356572076678276062e-03
-3.303194418549537659e-02
1.513803494162857533e-03
-4.524745792150497437e-02
