0.09865687787532806
-0.11247779428958893
-0.18938669562339783
0.04823719337582588
-0.06855110079050064
0.0369415357708931
0.0356561541557312
0.03021860681474209
-0.1103176549077034
-0.01063199806958437
-0.005413465667515993
0.013383040204644203
0.09976812452077866
-0.07191414386034012
-0.002155771479010582
0.15024586021900177
0.05665060505270958
-0.17246031761169434
0.05909190699458122
-0.029095854610204697
-0.11730979382991791
0.12625879049301147
-0.07481800764799118
-0.12735380232334137
0.051270660012960434
0.03739779442548752
-0.07945796102285385
0.0006547883385792375
-0.03528100252151489
-0.12059296667575836
0.07890506088733673
-0.17763552069664001
-0.017895031720399857
0.06013660505414009
0.014403660781681538
-0.03377991169691086
0.014586997218430042
0.0020373889710754156
0.1029663160443306
0.1486780345439911
-0.12158115953207016
0.01811603270471096
-0.0003981769841630012
-0.030169503763318062
-0.15462233126163483
0.0003045439370907843
0.10304810851812363
-0.0225788913667202
-0.1535036414861679
-0.18587306141853333
-0.10459312796592712
-0.05752439424395561
0.0669635459780693
-0.16390588879585266
0.09018642455339432
0.16235746443271637
-0.04031834751367569
-0.012583820149302483
-0.07716214656829834
-0.15333233773708344
-0.10831161588430405
-0.21003758907318115
0.06754190474748611
-0.050077661871910095
-0.17751827836036682
-0.1954474151134491
0.056639719754457474
0.15914219617843628
0.16423530876636505
0.12347760051488876
0.008224600926041603
0.09812305122613907
0.1830233782529831
0.007358565926551819
0.09682416915893555
0.16567261517047882
0.07924061268568039
-0.13140109181404114
0.034681469202041626
0.08913213759660721
-0.05702821910381317
-0.21933230757713318
0.01187996193766594
0.02586585469543934
0.18887852132320404
-0.016986815258860588
-0.1718888133764267
0.05649409070611
0.13124437630176544
0.029248341917991638
0.15585844218730927
-0.11513159424066544
0.03220956772565842
-0.15521126985549927
0.05223453417420387
-0.009680656716227531
