-0.01640985533595085
-0.0071901618503034115
-0.0166589617729187
0.0054127988405525684
-0.0004200205148663372
0.04066234081983566
-0.02221086621284485
-0.032278675585985184
0.040080633014440536
-0.019331645220518112
0.0044603911228477955
0.01705157198011875
0.03390016406774521
-0.004341837018728256
-0.0352986641228199
-0.018317271023988724
0.010130224749445915
0.0007449882104992867
-0.01017024926841259
0.03835495561361313
0.02473379857838154
0.0037426110357046127
0.004614116623997688
-0.017673851922154427
0.018960023298859596
-0.018031982704997063
-0.03526458889245987
0.018773505464196205
0.030658390372991562
-0.02703251503407955
0.007724957540631294
0.02347179502248764
-0.019045665860176086
0.018819531425833702
0.005440650973469019
0.024523841217160225
-0.021169167011976242
-0.020271625369787216
-0.037808168679475784
-0.03836556151509285
0.025985881686210632
-0.04403446242213249
0.028228122740983963
-0.0031441296450793743
0.0012803614372387528
-0.009511756710708141
0.040588993579149246
-0.0012746771099045873
0.005080340895801783
0.017861759290099144
-0.012915657833218575
-0.02558032236993313
0.007267235312610865
-0.03952644765377045
0.004891624674201012
-0.03437715396285057
0.005040952004492283
-0.03819386661052704
0.02433440089225769
-0.02920673042535782
0.007402548100799322
0.00921726319938898
0.012785745784640312
-0.005270961206406355
-0.03748408704996109
-0.0027183641213923693
-0.06314720958471298
-0.023902393877506256
-0.06208601966500282
0.03173891082406044
0.026662886142730713
0.017750518396496773
-0.03356518968939781
0.02111061103641987
0.05704192444682121
-0.040299177169799805
0.029989637434482574
-0.03943828120827675
-0.02556944079697132
-0.013075761497020721
-0.014237976633012295
0.032458286732435226
0.042405951768159866
-0.0403284914791584
0.019924577325582504
0.010242973454296589
0.0478890985250473
-0.015775326639413834
-0.029941197484731674
0.03858932480216026
0.03035963699221611
0.016091806814074516
-0.04023757576942444
0.030724436044692993
0.04110080748796463
0.025894222781062126
-0.04053770750761032
0.03617607057094574
-0.014378773979842663
-0.011321873404085636
0.028080694377422333
0.013090155087411404
-0.009083922952413559
-0.01606382057070732
-0.03588632494211197
0.01737239956855774
-0.02945685386657715
-0.0211676936596632
0.00039170155650936067
-0.04653364419937134
-0.028525428846478462
0.004287066403776407
0.009587369859218597
-0.029540659859776497
-0.01747971586883068
0.06077280268073082
-0.01876889169216156
0.00018514359544496983
-0.0313882976770401
-0.04712626710534096
0.00037059083115309477
0.030740803107619286
0.01513973344117403
0.03243808075785637
-0.047390252351760864
-0.029170051217079163
0.001791490358300507
-0.022114789113402367
-0.019555486738681793
0.04871669039130211
0.0002011941105592996
-0.02165326476097107
0.022604525089263916
0.01389751024544239
6.832373765064403e-05
0.006328746676445007
-0.002287109149619937
-0.00016450160183012486
-0.00795925036072731
0.0214040856808424
0.01577773317694664
-0.05219248682260513
-0.035761889070272446
0.0018406771123409271
-0.049429163336753845
0.021805472671985626
-0.03566345199942589
0.02577601931989193
-0.005741917062550783
0.012222971767187119
-0.023065192624926567
-0.023790299892425537
0.024830520153045654
0.0012599772308021784
-0.014325054362416267
0.037630949169397354
0.057726819068193436
0.007012794725596905
0.022988004609942436
0.0011359095806255937
-0.019252460449934006
-0.025539737194776535
-0.01372466515749693
0.009034162387251854
0.0063104755245149136
-0.02062183804810047
0.033703651279211044
-0.015002308413386345
0.007533126976341009
-0.002893732162192464
-0.0015454033855348825
-0.04973311349749565
-0.013346069492399693
0.014004948548972607
-0.0018931454978883266
-0.00838315300643444
0.018299737945199013
-0.011211068369448185
0.004266947507858276
-0.027574287727475166
-0.0252385251224041
0.011050989851355553
-0.000717839109711349
-0.012066827155649662
-0.04251021146774292
0.02648770809173584
0.019614050164818764
-0.027015579864382744
-0.04978998377919197
-0.04381980374455452
-0.02533489465713501
-0.02406984567642212
0.018047315999865532
-0.007331506814807653
-0.01575750857591629
0.025559337809681892
-0.013298796489834785
0.01730395294725895
-0.004024862311780453
0.029868388548493385
-0.007915359921753407
0.02923300676047802
-0.04766992852091789
0.01564030721783638
0.0015938604483380914
-0.00032725094933994114
0.03635348752140999
0.00277118431404233
-0.05227339640259743
-0.03325553610920906
-0.0191243477165699
-0.031517475843429565
-0.0017166977049782872
-0.0011130118509754539
0.05012816563248634
0.02879001386463642
-0.049442093819379807
-0.03169279545545578
-0.027325494214892387
0.029266193509101868
-0.034084808081388474
0.015750641003251076
0.021511686965823174
0.03153574466705322
0.02210233546793461
-0.03459521010518074
0.004112953785806894
-0.027517881244421005
0.011301846243441105
0.046710141003131866
-0.007353464141488075
-0.028750471770763397
0.034593433141708374
0.0184185728430748
-0.03839636594057083
-0.01888612098991871
0.014223091304302216
0.013955114409327507
0.02003750391304493
-0.012257425114512444
-0.007052838336676359
-0.012120789848268032
-0.04187261313199997
0.027675027027726173
0.018824191763997078
0.003647596575319767
-0.0002811385493259877
-0.0006019960856065154
0.015557858161628246
-0.010501994751393795
-0.03833523020148277
-0.01030321978032589
-0.03394943103194237
0.027837086468935013
0.020890867337584496
-0.0071711111813783646
