-0.056575313210487366
-0.07339128851890564
0.08648429065942764
-0.0005500506376847625
-0.012851879000663757
0.02993440441787243
-0.07451192289590836
-0.052210401743650436
0.07565606385469437
0.09407948702573776
-0.020521344617009163
-0.04648253694176674
-0.04164716973900795
-0.06155741214752197
0.008816380053758621
-0.02248772606253624
0.02394804358482361
0.10375448316335678
0.06077864393591881
-0.11356999725103378
0.041849929839372635
-0.054800279438495636
-0.038370534777641296
0.012065285816788673
0.10742686688899994
0.10679124295711517
0.022104179486632347
0.07550039887428284
-0.026663022115826607
0.06016312912106514
0.09457243978977203
0.031177842989563942
0.057463012635707855
-0.04537985473871231
-0.019678080454468727
0.09956523030996323
0.0004285572504159063
-0.0033576793503016233
0.016004659235477448
0.08146996796131134
-0.058976687490940094
0.05898629501461983
0.04411457106471062
0.04836501553654671
-0.03678746894001961
-0.18943163752555847
-0.02734985016286373
0.027222752571105957
0.01411431934684515
-0.07342647016048431
0.0889832004904747
0.05966693162918091
0.059472501277923584
-0.0371774397790432
0.031002448871731758
-0.07826126366853714
-0.061954107135534286
-0.032591912895441055
0.020800523459911346
0.1981135606765747
0.015412148088216782
-0.050136324018239975
-0.0768609419465065
-0.12909692525863647
