0.03611410781741142
-0.013243268243968487
0.0343816876411438
0.03454064950346947
-0.0011072676861658692
-0.0027442029677331448
0.011663076467812061
0.02861563302576542
-0.05195764824748039
-0.039709482342004776
0.03024308942258358
0.04413215070962906
-0.027107780799269676
0.023338036611676216
-0.048923879861831665
-0.010051567107439041
-0.03492031618952751
-0.019363468512892723
0.02333875745534897
-0.023403802886605263
-0.026875827461481094
-0.01315537840127945
-0.0060592470690608025
0.022198738530278206
-0.0001390444376738742
-0.036343611776828766
-0.04801597073674202
-0.03413691371679306
-0.0009918157011270523
-0.017026163637638092
-0.044339220970869064
0.03279047831892967
0.061606407165527344
-0.045042794197797775
0.011811227537691593
-0.041003741323947906
-0.022731050848960876
-0.0006159004406072199
-0.00410075718536973
-0.033283986151218414
-0.00513103324919939
0.03948507085442543
0.0438632033765316
-0.05368773266673088
0.042402368038892746
0.01850953698158264
0.04755314812064171
0.008553056977689266
-0.015699811279773712
-0.003495944896712899
0.014590299688279629
0.008074896410107613
-0.04349460080265999
0.01874060183763504
-0.014087839983403683
0.03702857345342636
-0.011744308285415173
0.019674338400363922
-0.0013277758844196796
0.029555069282650948
-0.03528382629156113
-0.0401981882750988
0.05477561801671982
-0.06657733023166656
-0.03977454453706741
-0.00904748123139143
0.07673874497413635
0.03525476157665253
0.04620511457324028
0.04806946590542793
0.04070389270782471
0.014400899410247803
0.017973152920603752
0.018343031406402588
-0.009818295948207378
-0.021598761901259422
0.013774060644209385
0.04079042747616768
0.04062259569764137
-0.028406020253896713
0.03687005862593651
-0.040035076439380646
0.08967426419258118
-0.0012964487541466951
0.014329412952065468
0.0002660250465851277
-0.005178657826036215
-0.022520892322063446
-0.026482930406928062
0.010343631729483604
0.027593394741415977
-0.019099421799182892
0.03228586167097092
0.01031993143260479
0.005300487857311964
-0.01151567418128252
0.027318665757775307
-0.011967115104198456
-0.06558684259653091
0.019113723188638687
-0.001846762839704752
0.005729532800614834
-0.04174905642867088
0.0788879320025444
-0.04863835498690605
0.05639125779271126
0.007723725400865078
0.015153071843087673
-0.027121054008603096
-0.045529596507549286
-0.02388012781739235
0.08646580576896667
-0.0763644129037857
-0.028995757922530174
-0.09105698019266129
-0.05974011868238449
0.045818861573934555
0.05213548243045807
0.05525655671954155
0.05144224688410759
0.04507344216108322
0.03193580359220505
-0.00256530218757689
-0.051465731114149094
-0.028422610834240913
0.04941381886601448
-0.013552495278418064
-0.029652943834662437
