0.0759139433503151
0.06034262850880623
0.10052908957004547
0.1124126985669136
0.10470510274171829
-0.11863930523395538
0.13196177780628204
0.07090768963098526
-0.012525299564003944
-0.08096571266651154
-0.04763256385922432
0.10306929796934128
-0.11090996861457825
0.08877385407686234
-0.03028601035475731
-0.04563772678375244
0.015545140951871872
-0.04839233309030533
0.09743596613407135
0.016313355416059494
0.016535727307200432
-0.04214421287178993
-0.034487687051296234
-0.11637278646230698
-0.16302204132080078
0.06897702068090439
0.10279715806245804
-0.09315133839845657
-0.01612062379717827
0.0993267297744751
0.01658373512327671
0.14342354238033295
-0.039169274270534515
-0.08626898378133774
0.13286587595939636
0.04368925839662552
0.08777516335248947
0.06226425617933273
-0.03484198451042175
-0.03766949847340584
-0.03201763704419136
0.03801734372973442
0.021675830706954002
0.04763154312968254
0.05511464551091194
0.08558089286088943
0.11590617895126343
-0.10015682131052017
-0.07018013298511505
0.008875351399183273
-0.1076086089015007
0.011648451909422874
-0.07737401872873306
-0.09709755331277847
0.012775106355547905
0.01637536659836769
-0.11565913259983063
0.06702674180269241
0.04713554307818413
-0.09127462655305862
-0.026668446138501167
0.08968563377857208
0.1090225949883461
-0.008007088676095009
0.09083081781864166
-0.025842927396297455
-0.08869122713804245
0.10086508095264435
0.0926811471581459
0.13449658453464508
-0.05724659189581871
-0.12820342183113098
-0.02182646095752716
-0.03461068123579025
-0.08740044385194778
0.05801533907651901
0.06225382536649704
0.04036400839686394
-0.0008869648445397615
-0.011810271069407463
0.06010592728853226
-0.01603342965245247
0.022618042305111885
-0.08993741124868393
0.09661706537008286
0.002971643814817071
0.09403547644615173
-0.08548002690076828
-0.06395275145769119
-0.030762746930122375
0.04178350418806076
-0.07841714471578598
0.05157958343625069
0.0009838944533839822
0.02986520528793335
-0.10304460674524307
-0.021442344412207603
-0.09611816704273224
0.1036514863371849
0.149114191532135
0.0015222809743136168
-0.02626853995025158
-0.10756595432758331
0.029322702437639236
0.16946861147880554
-0.03879614546895027
-0.09592925757169724
0.10260265320539474
0.059270478785037994
0.10444049537181854
-0.012948423624038696
0.1399134248495102
0.07235994935035706
-0.03776628151535988
-0.04922088608145714
0.004635307937860489
0.08185955137014389
0.08722329884767532
0.06823472678661346
0.1092711091041565
-0.10608834028244019
0.07981838285923004
0.10877042263746262
-0.07777044922113419
0.04137028008699417
-0.08139143139123917
-0.12723898887634277
0.049244608730077744
0.09940066933631897
0.006031786557286978
0.11121754348278046
-0.03653770312666893
0.03255736455321312
0.10624071210622787
0.029320795089006424
-0.02985954098403454
-0.0669819712638855
-0.09366357326507568
-0.052497074007987976
0.1169176772236824
0.016570817679166794
0.06732667982578278
0.06578697264194489
0.09860040247440338
0.12677602469921112
0.11840972304344177
0.09765897691249847
-0.06290450692176819
-0.025935819372534752
-0.07215394824743271
0.09608601778745651
0.0831838846206665
0.07680495083332062
-0.07146691530942917
-0.011571108363568783
0.039054710417985916
-0.13203245401382446
-0.11309295892715454
0.07193025201559067
-0.05614110454916954
-0.0653948187828064
0.06415984034538269
0.05498223751783371
0.027423951774835587
-0.04378422349691391
0.05890866741538048
0.0006779483519494534
-0.07292190939188004
0.0858326256275177
0.030360516160726547
0.047302402555942535
0.05302688479423523
-0.04875916242599487
0.13231618702411652
-0.0787363052368164
-0.036445390433073044
-0.1197219267487526
0.002477887086570263
0.062113404273986816
-0.09919416159391403
0.03225056082010269
-0.018540343269705772
0.028248516842722893
-0.015710270032286644
0.08648156374692917
0.053559739142656326
-0.05346392095088959
-0.04128032177686691
-0.07104843109846115
-0.04224438965320587
0.0996057465672493
-0.0679941475391388
