-0.014005334116518497
-0.0275955181568861
0.007231242023408413
0.0436423234641552
-0.01715579815208912
-0.03028155118227005
0.01238095574080944
-0.024516580626368523
-0.017588533461093903
0.011620982550084591
-0.006843077950179577
-0.017091942951083183
-0.023188268765807152
-0.015950864180922508
0.01816910319030285
0.02888963744044304
0.01125672459602356
-0.028691798448562622
-0.013815418817102909
-0.04679572954773903
0.008290690369904041
-0.00401708111166954
-0.0020489338785409927
-0.007121150381863117
0.028948817402124405
0.01906861923635006
0.007027935236692429
-0.0322367288172245
0.04024558141827583
0.03487374261021614
-0.015055933967232704
-0.014750676229596138
0.007295696996152401
-0.023857608437538147
0.03971938043832779
0.029920164495706558
-0.023172203451395035
-0.04074601083993912
-0.03781033307313919
-0.021571965888142586
-0.03018229454755783
0.029547594487667084
0.041915252804756165
-0.010588244535028934
0.022799532860517502
-0.010090796276926994
0.03881567344069481
-0.02005152590572834
0.013688716106116772
0.017981356009840965
-0.005627760197967291
-0.011495147831737995
0.033968351781368256
0.021933792158961296
0.0148844663053751
0.020628971979022026
-0.030792564153671265
0.03545093536376953
-0.008219960145652294
0.06219301000237465
-0.007116667926311493
0.0007712288061156869
0.0246872715651989
-0.007624240126460791
-0.00771467387676239
-0.002377942204475403
0.052277009934186935
-0.025306830182671547
-0.04077119380235672
0.04526015743613243
0.02323276549577713
-0.007582711521536112
0.006097457371652126
-0.046518079936504364
-0.010808252729475498
0.013379639014601707
-0.018044227734208107
-0.03172348439693451
-0.046082835644483566
0.001517192693427205
0.03864887356758118
0.01943086087703705
0.002612026873975992
0.03132791072130203
-0.005112666171044111
-0.047803282737731934
0.030673692002892494
0.01846395619213581
0.009852556511759758
0.017163842916488647
-0.005020214710384607
0.03750291466712952
0.012826183810830116
0.03341568633913994
0.01188022643327713
0.009020106866955757
0.05089721083641052
-0.002373673254624009
0.019911473616957664
-0.00018808450840879232
-0.033161383122205734
0.0005676730070263147
-0.04079745337367058
0.00395125662907958
0.0006470957887358963
0.035824503749608994
-0.022094231098890305
-0.020254814997315407
-0.04384423792362213
0.0002468969614710659
-0.0272953063249588
0.00045894275535829365
-0.027154378592967987
0.00435601407662034
0.031925663352012634
0.037875931710004807
0.008094318211078644
0.045634105801582336
-0.03132916986942291
0.007445992436259985
-0.03326093778014183
0.009780067019164562
-0.031727857887744904
-0.010821202769875526
0.007971512153744698
0.008107610046863556
0.02574789896607399
0.02235780470073223
0.012601037509739399
0.030182627961039543
-0.021790485829114914
-0.004089272115379572
0.005336629692465067
0.03234843537211418
0.023056484758853912
-0.047137077897787094
-0.022857757285237312
-0.042784202843904495
-0.00018007565813604742
0.03469311445951462
0.037907473742961884
0.02184360846877098
-0.02882309816777706
0.045722730457782745
0.011472786776721478
0.041279926896095276
0.009406283497810364
0.04086054116487503
-0.014950157143175602
-0.04407493397593498
0.03652914986014366
0.011259780265390873
0.040636640042066574
-0.012878919951617718
-0.06352387368679047
0.002585242735221982
-0.005195468198508024
-0.020262006670236588
0.020510122179985046
0.025815673172473907
0.03413303196430206
0.01700836978852749
-0.046756189316511154
0.00880767684429884
-0.024104228243231773
-0.0056173899210989475
0.009137064218521118
0.029701074585318565
-0.003917268011718988
-0.012552916072309017
-0.008212914690375328
0.013114896602928638
0.0028075093869119883
0.0194851141422987
0.014109828509390354
0.003661372000351548
-0.011336755938827991
-0.03981023654341698
0.004300034139305353
-0.007266621105372906
-0.023837698623538017
-0.06296546012163162
-0.04275266453623772
0.02226819097995758
-0.005438981577754021
-0.03126869723200798
0.013702563010156155
0.017433788627386093
0.02661917731165886
-0.022964101284742355
-0.02562820538878441
0.008136197924613953
