0.056841593235731125
-0.022604919970035553
-0.03299642726778984
-0.05679371580481529
-0.009635735303163528
-0.04225198179483414
-0.06518033891916275
-0.06613308191299438
0.060427337884902954
0.03643659129738808
0.06126829981803894
-0.0115745784714818
0.006373729556798935
-0.021260010078549385
0.03125942498445511
0.02044696919620037
0.006875142455101013
0.12944179773330688
0.08020588755607605
-0.04204609990119934
0.009643115103244781
-0.08662918210029602
-0.013992530293762684
0.02117537334561348
-0.08343826234340668
0.028189653530716896
-0.09434538334608078
0.08816584944725037
-0.03212602064013481
0.0368226058781147
-0.03484928235411644
-0.053757112473249435
-0.016065580770373344
-0.06277183443307877
-0.08100198209285736
0.16175466775894165
-0.05342479050159454
0.05134622007608414
0.09003515541553497
-0.0020418502390384674
-0.040590617805719376
0.0008691323455423117
0.02817928045988083
-0.01587742380797863
0.14044031500816345
-0.009100534953176975
-0.061209894716739655
-0.05931641906499863
0.015548366121947765
0.07434572279453278
-0.010637386702001095
0.06975874304771423
-0.04070519283413887
-0.06827664375305176
0.12198097258806229
-0.01648070104420185
-0.08671851456165314
-0.048912163823843
0.15781733393669128
-0.03551797941327095
-0.03346498683094978
0.02572654001414776
-0.10345018655061722
-0.04091572389006615
