-0.035281114280223846
0.023661848157644272
-0.03050856664776802
0.16294465959072113
0.04811588302254677
-0.039948970079422
-0.010590163059532642
-0.07066768407821655
-0.04943866655230522
0.03759171813726425
0.08880309015512466
-0.051444653421640396
0.024282805621623993
0.08761128038167953
-0.01486857421696186
-0.08535003662109375
0.09667379409074783
0.03531089797616005
-0.04487062245607376
0.03584438934922218
-0.05527147650718689
0.048500094562768936
-0.01434354204684496
-0.0010742604499682784
-0.03442956507205963
0.02542879432439804
0.04680496081709862
0.08286162465810776
-0.034795429557561874
-0.047102537006139755
0.05590367317199707
0.028042195364832878
0.16884075105190277
-0.05764687433838844
-0.05700518190860748
-0.02951636351644993
0.002037818543612957
-0.013409215025603771
0.0016668777680024505
-0.006461524870246649
-0.026434700936079025
0.009674076922237873
-0.04894602671265602
-0.06802796572446823
0.017649566754698753
-0.07364007085561752
0.007684516254812479
0.018190152943134308
