0.030706899240612984
-0.038773875683546066
-0.038384802639484406
-0.011309895664453506
0.03981159254908562
-0.005592558532953262
-0.014865490607917309
-0.010474571958184242
-0.023289509117603302
-0.0379270501434803
0.035523660480976105
-0.00043052001274190843
0.03808186203241348
-0.013148999772965908
0.004378742538392544
-0.013412581756711006
0.008385686203837395
-0.03766427934169769
-0.03935933858156204
0.026545627042651176
-0.006891472265124321
-0.02082800678908825
0.03652328625321388
0.02700810506939888
-0.03160306438803673
-0.04241900146007538
0.025011783465743065
-0.01799105666577816
0.03812303766608238
-0.00924049410969019
-0.044014714658260345
-0.02541377581655979
-0.019877683371305466
0.02753373794257641
-0.01684677042067051
0.039899323135614395
-0.02983270213007927
-0.031207092106342316
0.01370599027723074
-0.04154293239116669
0.0323641337454319
-0.02014162950217724
-0.016296114772558212
-0.028980866074562073
0.03777804970741272
-0.022484274581074715
0.02614920772612095
-0.02363630011677742
0.01246429793536663
0.010288631543517113
-0.03372514247894287
0.023180002346634865
0.03393374755978584
0.04159475490450859
-0.034047357738018036
0.01791292428970337
0.00942758098244667
-0.01354916486889124
0.030588487163186073
0.027246693149209023
0.00838675256818533
0.029900899156928062
-0.005956366192549467
-0.00419581076130271
0.03528566658496857
0.005353593733161688
0.004938920959830284
-0.007834150455892086
-0.03383443132042885
0.01999695785343647
0.043914150446653366
-0.02913329191505909
-0.0280932504683733
-0.017174439504742622
-0.009413309395313263
-0.004884262569248676
0.007083408068865538
-0.030874446034431458
0.03583270311355591
-0.012731872498989105
0.01125717256218195
0.02878729999065399
0.030549079179763794
0.015065216459333897
0.032379649579524994
-0.016684453934431076
0.0233298372477293
0.01501368172466755
-0.008410461246967316
-0.027357840910553932
-0.01592407003045082
0.03540081903338432
0.0006925016641616821
-0.0019057599129155278
-0.006567300762981176
0.04203557223081589
-0.015681223943829536
0.008812056854367256
0.0166670810431242
0.02928026206791401
-0.037732455879449844
0.0001657272659940645
0.031209658831357956
0.0003503069165162742
-0.02285734750330448
-0.027474183589220047
0.01008421741425991
-0.0025028688833117485
-0.01809236966073513
-0.01858212985098362
0.010107208974659443
-0.019297974184155464
0.01767280325293541
0.03704329952597618
0.00013373659749049693
0.02190864272415638
0.030832672491669655
0.02447548322379589
0.015162649564445019
0.011761805042624474
-0.08411235362291336
-0.009298822842538357
0.011566797271370888
0.044209085404872894
-0.010529996827244759
0.02131435088813305
0.04691152274608612
-0.0012250656727701426
-0.030286353081464767
-0.005021337419748306
-0.04160114750266075
0.0033317944034934044
0.022227752953767776
-0.03597845882177353
0.02875327877700329
-0.02820736914873123
0.0005753521108999848
-0.030704159289598465
-0.003350907238200307
0.028413109481334686
0.007424426265060902
-0.02404421754181385
0.049535367637872696
-0.0323723629117012
-0.006283363327383995
-0.05048186704516411
-0.016476746648550034
0.033490609377622604
-0.03190804645419121
-0.04341632500290871
0.0011377735063433647
-0.02485370635986328
0.006850728765130043
-0.03331433981657028
-0.010797973722219467
0.022671490907669067
0.03827647119760513
0.004820335656404495
-0.01889222487807274
0.0016299713170155883
0.035218268632888794
0.030022790655493736
0.010934598743915558
0.027443675324320793
-0.006724144797772169
0.06896139681339264
-0.048629581928253174
-0.016382524743676186
-0.021395493298768997
-0.0005989618366584182
0.03667934611439705
-0.021140629425644875
-0.04202766716480255
0.030515724793076515
-0.03071446344256401
-0.022826792672276497
0.01987581141293049
-0.025827640667557716
0.02261366881430149
0.02257489040493965
-0.03959780931472778
0.0068529099225997925
-0.006000462453812361
0.01159941777586937
0.022546499967575073
0.030752327293157578
0.00015313336916733533
-0.008448770269751549
-0.041975438594818115
-0.02710632048547268
0.045018188655376434
0.049933742731809616
