-0.045231129974126816
0.029538147151470184
-0.07992994040250778
-0.08881135284900665
-0.1064346507191658
0.050028420984745026
0.03524881228804588
0.04041837900876999
-0.0901414304971695
-0.05668707937002182
-0.012565688230097294
0.04834270104765892
0.04547985643148422
-0.0734381154179573
-0.08492173999547958
0.053533848375082016
-0.04214950278401375
-0.12272558361291885
-0.06579478830099106
-0.08290933817625046
-0.04536386951804161
-0.11549104005098343
0.10322404652833939
0.03801211714744568
-0.07004526257514954
-0.05836622416973114
0.0031196451745927334
-0.06473808735609055
-0.10578414797782898
-0.015495669096708298
0.05045609921216965
-0.06012517586350441
-0.04216032475233078
0.044776808470487595
-0.02088034898042679
0.07662046700716019
0.09228243678808212
-0.09391174465417862
0.0533626452088356
-0.04525126516819
-0.07857941836118698
0.04110616073012352
-0.037926413118839264
0.019403783604502678
-0.09498992562294006
0.014926259405910969
-0.006689215544611216
0.0012859873240813613
0.0775742158293724
0.027446739375591278
0.12898048758506775
-0.02036501094698906
-0.10471534729003906
-0.07077562808990479
0.09888814389705658
-0.11509507149457932
0.022382568567991257
0.052557267248630524
-0.08403413742780685
0.07423323392868042
-0.07966698706150055
-0.07658708095550537
0.013534472323954105
0.006829308811575174
0.07915491610765457
-0.059238698333501816
-0.013725357130169868
-0.08024413883686066
-0.020212281495332718
0.028888558968901634
-0.00041115633212029934
0.006196900736540556
-0.04324844479560852
-0.08982600271701813
0.08733092248439789
0.05803302302956581
0.07663619518280029
0.0951809510588646
0.013769423589110374
0.0753287747502327
-0.04689141735434532
-0.10432655364274979
-0.05612225830554962
-0.032743021845817566
-0.09680246561765671
-0.032191064208745956
0.02322360873222351
-0.09829679131507874
-0.05897444859147072
-0.14095985889434814
0.08212367445230484
-0.02040846273303032
-0.0266962219029665
-0.08586596697568893
-0.04157780110836029
-0.10613463073968887
0.013464769348502159
0.09191279113292694
0.10988137125968933
0.10151960700750351
0.09977485239505768
-0.05266130715608597
-0.009818932972848415
-0.03140461817383766
-0.09243879467248917
-0.1071302518248558
0.022698942571878433
-0.07919468730688095
0.047506265342235565
-0.028920095413923264
0.08863922208547592
-0.05125018581748009
-0.09420480579137802
0.09828248620033264
0.09606028348207474
0.04037877172231674
0.085954450070858
0.05630451440811157
-0.06778626143932343
-0.031358737498521805
-0.07548152655363083
0.10835644602775574
-0.04207628592848778
0.05815400183200836
-0.07388898730278015
-0.07957269996404648
0.04771370813250542
-0.0996536836028099
-0.07572588324546814
0.04685123264789581
0.05171109363436699
-0.038195326924324036
-0.09399521350860596
-0.005499456077814102
-0.04687424376606941
-0.024009177461266518
-0.11095806956291199
-0.08745627105236053
-0.10170113295316696
0.036409467458724976
-0.02073504775762558
-0.0338183231651783
-0.10100659728050232
-0.06856998056173325
0.06950630247592926
0.09158037602901459
-0.017807580530643463
0.021398842334747314
-0.021346386522054672
0.10628466308116913
0.07197467982769012
-0.12114009261131287
0.0890452042222023
0.0706716775894165
-0.08779504895210266
0.008404627442359924
0.0038313542027026415
-0.01660422421991825
0.0052834562957286835
-0.046015847474336624
-0.06951882690191269
0.08688599616289139
-0.03789598494768143
-0.020307958126068115
-0.06431374698877335
0.023529373109340668
-0.024670833721756935
0.06362822651863098
-0.018816446885466576
-0.00039217525045387447
-0.04693076014518738
-0.03530317544937134
0.002084077103063464
-0.028312966227531433
-0.09537637233734131
0.007255653850734234
-0.03445219248533249
-0.07074178010225296
-0.08015015721321106
0.0025986561086028814
0.061436038464307785
-0.030541453510522842
-0.0654023289680481
0.07787901908159256
0.006805353332310915
-0.018525995314121246
-0.06026293709874153
-0.02739010564982891
0.09059736132621765
0.10577769577503204
-0.1026809960603714
0.038164399564266205
-0.08916317671537399
-0.028182892128825188
-0.008992617949843407
-0.10522118955850601
-0.033136997371912
0.040807053446769714
0.004643937107175589
-0.08118084073066711
0.028039364144206047
-0.04633105918765068
-0.01353499572724104
-0.04981892183423042
0.03131575882434845
0.048336949199438095
-0.06040888652205467
0.012868295423686504
0.010674593038856983
0.004518325440585613
-0.08272114396095276
-0.09314452111721039
0.08046479523181915
0.07921674102544785
0.05236894264817238
-0.10030148923397064
-0.10223445296287537
-0.010587599128484726
0.10184571892023087
-0.02896299958229065
-0.03896406665444374
-0.08737634122371674
0.008352828212082386
-0.11718572676181793
-0.04971389099955559
-0.1009034663438797
0.1061706393957138
-0.11510500311851501
-0.07902592420578003
0.10844886302947998
0.11081692576408386
-0.017843574285507202
0.10231228172779083
0.010626294650137424
0.036574169993400574
-0.038665659725666046
-0.06962822377681732
-0.12487512826919556
0.10044296085834503
0.06089361011981964
0.05556870996952057
-0.005262074992060661
-0.1039033904671669
0.09743865579366684
0.1093754842877388
0.04805759713053703
-0.06751104444265366
-0.08121971040964127
-0.009765545837581158
0.016826743260025978
-0.03743723779916763
-0.00445281807333231
-0.09053874015808105
-0.10134947299957275
-0.0281172227114439
0.024672769010066986
