0.08116413652896881
0.02858576364815235
0.07424627989530563
-0.07467944175004959
-0.10424303263425827
-0.03774568438529968
-0.10548193007707596
-0.15218918025493622
0.22387489676475525
0.21770519018173218
-0.14492669701576233
-0.14067186415195465
0.03995769843459129
0.04923025518655777
-0.1670605093240738
0.09721320122480392
0.09845849871635437
0.10627011954784393
0.25585633516311646
-0.17551887035369873
-0.08187226951122284
-0.1459929496049881
-0.01849362626671791
-0.12683439254760742
-0.09445584565401077
-0.13392797112464905
-0.0989885926246643
0.14119163155555725
-0.2702268064022064
-0.08771127462387085
-0.013558234088122845
0.016080861911177635
-0.09156761318445206
0.20314261317253113
0.10952900350093842
0.1270579695701599
0.015541664324700832
-0.10253286361694336
0.04627498239278793
-0.1705707460641861
0.2576274275779724
-0.1380772590637207
0.11820726841688156
0.11506768316030502
0.00892411544919014
-0.07086222618818283
0.08031439036130905
0.23495234549045563
-0.06605907529592514
0.009095728397369385
0.060939233750104904
-0.1277397722005844
0.0018085661577060819
0.24772828817367554
-0.1265004724264145
0.12010474503040314
0.10329942405223846
0.030457235872745514
-0.056723181158304214
-0.0960158184170723
-0.1445489376783371
0.09190163016319275
0.07542365044355392
-0.18509407341480255
