-0.05392323434352875
-0.007224812172353268
-0.010860983282327652
0.08550941944122314
-0.010250814259052277
0.08327247202396393
0.0003403812297619879
-0.05078980326652527
-0.003774105105549097
0.053048357367515564
0.030609453096985817
-0.02545895427465439
-0.03964231163263321
0.09026355296373367
-0.09267149120569229
0.06095944344997406
0.01076577976346016
0.003511426504701376
0.09914997965097427
0.010692141950130463
0.053922105580568314
0.006218733731657267
-0.0032668672502040863
0.05922679230570793
0.05362850800156593
-0.01187308132648468
0.027470741420984268
-0.024135543033480644
-0.01485578715801239
0.019790485501289368
0.03642745316028595
0.0025141991209238768
0.06621040403842926
-0.005941878538578749
-0.020621800795197487
0.03361910581588745
-0.012720955535769463
-0.009679807350039482
0.06857679039239883
0.01355999056249857
0.0021093615796417
0.040157679468393326
-0.03348848596215248
0.014859137125313282
-0.07347150892019272
0.03882936015725136
-0.04820173978805542
-0.010155003517866135
0.035211462527513504
-0.016976594924926758
-0.010250149294734001
0.02280694805085659
-0.08263781666755676
-0.10930570960044861
-0.041130609810352325
-0.021662019193172455
-0.06299672275781631
0.021191714331507683
-0.024355033412575722
-0.03484347090125084
-0.0764356404542923
-0.023132873699069023
0.023987991735339165
0.03068329021334648
-0.034202661365270615
0.0204338189214468
0.048079632222652435
-0.050839874893426895
-0.01280267909169197
-0.04580852389335632
-0.08981185406446457
0.029553577303886414
0.006117437966167927
-0.01824781857430935
0.018132325261831284
0.014923079870641232
-0.022048862650990486
0.024195929989218712
-0.049614448100328445
-0.0339215062558651
0.061346087604761124
-0.030603177845478058
0.03947062790393829
-0.012646851129829884
-0.08159659057855606
0.008736161515116692
0.03755059465765953
-0.03815850242972374
-0.06123839691281319
0.011081818491220474
0.07287819683551788
0.020107867196202278
0.04539892077445984
-0.030824266374111176
-0.041803594678640366
-0.029366962611675262
0.04900849238038063
-0.024784507229924202
-0.01743677258491516
-0.0008311744895763695
-0.038965027779340744
0.005719798617064953
-0.08198090642690659
0.044679541140794754
-0.006003455258905888
-0.03776752948760986
0.06338389962911606
-0.006602469831705093
0.09071444720029831
0.040153373032808304
0.03568620607256889
-0.03225922957062721
-0.049590032547712326
0.041503943502902985
-0.03982073813676834
-0.008833041414618492
0.03660555183887482
-0.00662015238776803
0.005453606601804495
-0.03689027577638626
-0.017987830564379692
-0.02587943524122238
-0.010378223843872547
0.042359210550785065
-0.035564273595809937
0.04260018467903137
0.06706918776035309
0.024808794260025024
