0.03869401291012764
-0.1323375403881073
-0.06228066608309746
0.06829426437616348
0.09143691509962082
0.13118214905261993
0.03386406973004341
0.14290890097618103
-0.10489029437303543
0.00806508120149374
-0.047293197363615036
-0.010063833557069302
-0.13411842286586761
0.1683141440153122
0.025523213669657707
-0.07726036012172699
-0.12809725105762482
-0.1317271888256073
0.009665709920227528
0.05766778066754341
-0.14311006665229797
0.08603730797767639
-0.13166368007659912
0.030518658459186554
-0.028839925304055214
0.039497412741184235
-0.11882241070270538
-0.08787132054567337
0.0077210282906889915
-0.01604074239730835
-0.12040486931800842
0.12700679898262024
0.006795190274715424
0.09867824614048004
0.057179395109415054
-0.07893570512533188
0.01812048628926277
0.174681156873703
-0.08539169281721115
-0.1733107566833496
0.07053810358047485
0.06004740297794342
0.07726529240608215
0.1568739414215088
0.1403254270553589
-0.10703375190496445
-0.13450205326080322
-0.09043809026479721
-0.07683071494102478
0.07584245502948761
0.035326018929481506
-0.03958134353160858
0.03684940189123154
0.06337373703718185
0.11006879061460495
-0.07272785902023315
-0.13185781240463257
-0.12674497067928314
0.052111074328422546
0.011728744953870773
0.0879708081483841
0.14449763298034668
-0.17898720502853394
0.12368984520435333
-0.030221642926335335
-0.0650426596403122
-0.19082222878932953
-0.12251412123441696
0.14374852180480957
-0.03064538724720478
-0.06096253544092178
0.041557565331459045
0.15663671493530273
-0.06632377207279205
-0.13567617535591125
0.11881933361291885
-0.027778562158346176
0.10610123723745346
0.03245494142174721
0.0886247381567955
-0.05043133720755577
0.04085691645741463
0.15178203582763672
0.1581186205148697
-0.004188732244074345
-0.08802072703838348
0.09906749427318573
0.17148084938526154
-0.1524733006954193
0.05858967453241348
0.14608848094940186
-0.06592698395252228
0.13791519403457642
-0.08327388018369675
-0.029279526323080063
0.05106113851070404
0.05747101455926895
-0.03518462926149368
-0.13532479107379913
0.08367491513490677
-0.14581643044948578
0.15910567343235016
-0.0880884975194931
0.05576243996620178
0.05491550266742706
0.07336399704217911
-0.03445466235280037
-0.17664846777915955
0.20564869046211243
0.09459530562162399
-0.0364282988011837
-0.14348572492599487
-0.023615846410393715
-0.1771460771560669
0.08477571606636047
-0.04413009062409401
-0.06885823607444763
-0.11453024297952652
-0.07453125715255737
0.029259497299790382
0.11659099906682968
0.06978034973144531
0.04859478771686554
0.03260448947548866
-0.1065007671713829
0.05972440168261528
0.014971697703003883
0.05995292589068413
