0.025127461180090904
-0.09339266270399094
-0.18018338084220886
0.012230681255459785
-0.2115289270877838
0.02579113282263279
0.01654219999909401
-0.1503678411245346
-0.24626262485980988
0.1327800303697586
-0.20323039591312408
-0.15939021110534668
0.041271913796663284
-0.1410454362630844
-0.22551196813583374
-0.021114638075232506
-0.10483255237340927
-0.04523274675011635
0.09414828568696976
0.012932411395013332
0.1906004250049591
-0.26499754190444946
0.2597670555114746
0.12017673254013062
-0.04853672534227371
0.13937202095985413
0.2086629867553711
0.08154948800802231
0.004191712476313114
-0.032823432236909866
-0.07447425276041031
-0.07574885338544846
-0.13688243925571442
-0.018738694489002228
-0.046144768595695496
0.09179968386888504
-0.03386620432138443
-0.17527979612350464
0.2501232624053955
0.08735977858304977
0.06934432685375214
-0.2777821123600006
0.20894108712673187
0.2281552106142044
-0.1014847457408905
-0.13506358861923218
-0.04357768967747688
0.24284407496452332
-0.0267032478004694
0.15196643769741058
-0.2568531334400177
-0.15265372395515442
0.22056929767131805
0.18306855857372284
0.06208222359418869
0.11828368157148361
0.14986900985240936
0.2208302766084671
-0.10556476563215256
-0.08999817073345184
-0.15297658741474152
0.012672499753534794
0.21496762335300446
-0.06779830157756805
