0.04602336511015892
-0.054035574197769165
0.0026346533559262753
0.04145245999097824
-0.003225282533094287
-0.023613104596734047
0.021789345890283585
-0.021839112043380737
0.00216140178963542
0.020303748548030853
-0.02934185415506363
-0.02347981557250023
-0.018867820501327515
-0.015133104287087917
0.0015712440945208073
-0.034196119755506516
-0.008304329589009285
0.0246184803545475
-0.03567659482359886
-0.025789955630898476
0.0009089015075005591
0.016783839091658592
-0.010410674847662449
0.005162335466593504
0.015294472686946392
-0.0351223349571228
0.007089394144713879
0.019235538318753242
-0.03318045288324356
0.03969831019639969
0.0018829632317647338
-0.03371254354715347
-0.006484282668679953
-0.023692384362220764
0.02608015201985836
-0.0031641775276511908
0.012732204981148243
-0.013572350144386292
-0.003835981246083975
-0.03062443435192108
-0.03741683438420296
0.038577549159526825
0.016412731260061264
-0.03178834542632103
0.002048783702775836
-0.03700323775410652
0.03755529224872589
-0.023284312337636948
0.017735011875629425
-0.009046370163559914
-0.051569122821092606
0.008491935208439827
0.02668904885649681
-0.017190316691994667
-0.04772515967488289
0.027382507920265198
0.05751471966505051
-0.016902178525924683
-0.023172471672296524
0.011783251538872719
0.00325465714558959
0.0025243423879146576
-0.008188854902982712
-0.016094017773866653
-0.01674489863216877
-0.007848815992474556
-0.036723650991916656
0.014562487602233887
-0.02763293869793415
0.03886180743575096
0.04302503168582916
0.004710743203759193
-0.000763180258218199
0.06025220453739166
-0.014233586378395557
-0.00908051896840334
0.03484024852514267
0.004532326944172382
-0.019108423963189125
0.003054574131965637
0.038012754172086716
-0.010342163033783436
-0.018964363262057304
-0.008407766930758953
0.00212415331043303
0.0017304345965385437
0.014400149695575237
-0.030149132013320923
-0.0023797645699232817
0.026697464287281036
0.01926446333527565
-0.0365460142493248
0.007468763273209333
0.00531142670661211
0.009265094064176083
0.020516006276011467
-0.021276930347085
0.048264361917972565
0.006448324304074049
0.0020422139205038548
-0.03127295896410942
0.041045740246772766
-0.008464221842586994
0.03900754451751709
0.002819739980623126
0.006445471663028002
-0.009092950262129307
-0.0185924731194973
0.051833491772413254
0.004251829814165831
-0.02951226197183132
0.018807820975780487
-0.021004298701882362
-0.013542843982577324
0.020027464255690575
0.006255335174500942
-0.05586429312825203
0.058718301355838776
-0.034894462674856186
0.023735297843813896
-0.02971917949616909
-0.04354669153690338
-0.01858694851398468
-0.0037633629981428385
-0.024599045515060425
0.011492185294628143
0.027684956789016724
-0.011411001905798912
-0.039704401046037674
-0.019810842350125313
-0.03390128165483475
0.026560744270682335
0.03526097908616066
7.054924208205193e-05
-0.0027926017064601183
0.0263945534825325
0.009317424148321152
-0.00294703827239573
-0.030490830540657043
0.010226614773273468
-0.01915852725505829
-0.012025915086269379
0.0017544602742418647
0.017085833474993706
-0.0349389873445034
-0.00534508703276515
0.019102927297353745
-0.007508552633225918
0.016449211165308952
0.019320562481880188
-0.007008714135736227
-0.025171972811222076
0.01061662845313549
0.013462349772453308
0.02114623412489891
0.019441524520516396
0.039848119020462036
-0.008488071151077747
-0.04489148408174515
0.03140804544091225
0.019192438572645187
0.03205591440200806
0.010751521214842796
0.017295844852924347
-0.014892200008034706
0.04246235638856888
-0.06306647509336472
0.003438287880271673
0.036341678351163864
0.00535127567127347
-0.03501421958208084
0.0038031425792723894
-0.0019471582490950823
0.000831931596621871
0.03870639204978943
0.0036894825752824545
-0.0011417552595958114
-0.03604411333799362
-0.0005253321724012494
0.015133094042539597
-0.002149694599211216
0.03938101604580879
0.025315305218100548
-0.0011473665945231915
-0.009008146822452545
-0.009691331535577774
0.003326389705762267
0.035009413957595825
0.010910045355558395
0.02904534339904785
0.027157535776495934
-0.004310078453272581
-0.015338001772761345
0.010345600545406342
0.012603799812495708
-0.0065262471325695515
-0.02630593255162239
-0.011732380837202072
0.020541969686746597
-0.0015960392775014043
-0.0071193017065525055
-0.038526762276887894
0.004071778152137995
-0.035555001348257065
-0.014651209115982056
-0.026447393000125885
-0.04572620987892151
0.003736433107405901
0.022346826270222664
-0.04495221748948097
-0.019693618640303612
0.033104367554187775
-0.014704767614603043
0.010630184784531593
-0.033035773783922195
0.02316056750714779
0.03860805928707123
-0.0005219863378442824
0.019977429881691933
0.0021263116504997015
-0.00536888325586915
-0.004710136912763119
-0.015490226447582245
-0.00595161272212863
-0.01088833250105381
-0.019630329683423042
0.003969512414187193
0.029481444507837296
-0.027616269886493683
-0.01387688796967268
-0.027990689501166344
-0.005098302382975817
0.045142680406570435
-0.01268304418772459
0.021159494295716286
-0.008039792999625206
0.016019165515899658
0.027979303151369095
0.008305604569613934
0.028217991814017296
-0.009042425081133842
-0.03184983879327774
0.002884574932977557
-0.01833713799715042
-0.010519345290958881
0.009416628628969193
-0.02618621289730072
0.017631664872169495
-0.014537123031914234
-0.013651386834681034
-0.032863061875104904
-0.03209758549928665
0.02748996764421463
0.02474634349346161
0.02922966703772545
-0.03753449395298958
