0.028989629819989204
0.05675455182790756
0.03290262818336487
0.00898068305104971
-0.034485504031181335
-0.12178415805101395
-0.06976182013750076
0.013267301954329014
-0.027166642248630524
0.049743108451366425
-0.016003184020519257
-0.01114997174590826
0.006124815437942743
-0.04749462753534317
0.07128327339887619
0.035365521907806396
0.0805782675743103
-0.02926761843264103
0.0036307312548160553
0.0012680126819759607
0.07078292220830917
-0.015208928845822811
0.0009201430366374552
0.03082948923110962
0.02449159324169159
-0.011036534793674946
0.023239897564053535
0.01622093841433525
0.05991935357451439
-0.019580591470003128
0.041002482175827026
0.06997937709093094
-0.014394940808415413
-0.03242677077651024
-0.04281890019774437
-0.03298906609416008
-0.023937596008181572
-0.028448065742850304
0.042464833706617355
-0.029512517154216766
0.04474010691046715
-0.05325370281934738
0.0196449663490057
0.018938422203063965
0.028376635164022446
-0.0037532958667725325
-0.0019248020835220814
0.007472496014088392
0.07696346938610077
0.022810012102127075
0.0005824537365697324
-0.009180094115436077
0.014934899285435677
0.03799649327993393
0.06367664784193039
-0.005099108908325434
-0.014558171853423119
0.017263730987906456
0.07742331922054291
-0.04887470230460167
0.030702777206897736
0.018608292564749718
-0.016866382211446762
-0.02688937447965145
