0.11693597584962845
0.05477229505777359
0.08819268643856049
0.06258834898471832
-0.09111370891332626
-0.10136894881725311
-0.046147797256708145
0.013163113966584206
-0.03916064649820328
-0.03864885866641998
0.07067172229290009
0.07020504027605057
-0.024452196434140205
0.009003343991935253
0.04021787270903587
-0.09081383794546127
0.05263282358646393
-0.06611770391464233
-0.025169789791107178
-0.03625893220305443
0.04515073448419571
0.10649950057268143
0.06916667520999908
0.10308071970939636
0.06230900064110756
0.0007378084119409323
0.003034880617633462
-0.06322955340147018
-0.09351667761802673
0.05107422173023224
0.03435150906443596
-0.10436030477285385
-0.01978166028857231
-0.033905595541000366
-0.018586300313472748
-0.07420308887958527
0.056118194013834
-0.035396333783864975
-0.07413914054632187
-0.012273307889699936
0.06845318526029587
-0.06621300429105759
-0.06951753795146942
0.014001934789121151
-0.04864295572042465
-0.01963917911052704
0.10585042089223862
0.05221856012940407
-0.028818054124712944
0.04578847438097
-0.06980400532484055
0.03337477520108223
0.036880429834127426
-0.09628976136445999
0.01906057633459568
-0.005285495892167091
-0.03355491906404495
0.04978654533624649
0.02923164702951908
-0.07259251177310944
0.021349210292100906
-0.009852147661149502
0.0009292275062762201
0.11548284441232681
-0.11124900728464127
-0.092584028840065
0.030139628797769547
0.0384526327252388
-0.030599083751440048
0.038145411759614944
-0.07100163400173187
0.1285521537065506
0.09026377648115158
-0.03450237959623337
0.005877931136637926
-0.09311947971582413
0.028842991217970848
0.04796891659498215
0.02142007276415825
0.07361370325088501
0.12374550849199295
-0.07456736266613007
0.07110033184289932
-0.12393803149461746
0.030916482210159302
0.07945100218057632
-0.060333266854286194
-0.004030284937471151
0.053569626063108444
-0.044907037168741226
-0.061648838222026825
-0.09874427318572998
-0.09938851743936539
0.08826453238725662
-0.07585808634757996
0.10425040870904922
-0.04551943019032478
0.07894100248813629
-0.1394798457622528
-0.02435391955077648
-0.05697101727128029
-0.09892759472131729
0.0896492749452591
0.11623181402683258
-0.052990514785051346
0.08590241521596909
-0.08928006142377853
-0.029627885669469833
0.015589669346809387
-0.07343732565641403
0.05196775868535042
-0.020636869594454765
0.01637602224946022
0.073777936398983
-0.0006861643632873893
0.06052928790450096
0.041068654507398605
-0.04051461070775986
0.10129719227552414
-0.04250253364443779
0.08543708175420761
0.09212368726730347
-0.11025768518447876
0.10438738018274307
-0.06766515225172043
0.017546413466334343
-0.0026487645227462053
0.07480552047491074
-0.021010631695389748
-0.06423643976449966
-0.015218852087855339
-0.010480145923793316
0.014203467406332493
-0.0934259220957756
-0.09475868940353394
0.07233456522226334
-0.008832709863781929
-0.039413802325725555
-0.11374040693044662
-0.055604610592126846
0.09453579038381577
0.08781929314136505
0.007775560487061739
0.09305926412343979
-0.0986676961183548
-0.0004247321339789778
-0.038708869367837906
0.04818308353424072
0.025488872081041336
-0.03516701981425285
0.06748852878808975
0.06213347613811493
-0.05277450755238533
0.09240740537643433
0.09119769930839539
-0.08089813590049744
0.07942687720060349
0.06305747479200363
-0.07933913916349411
0.09918375313282013
-0.07305964082479477
0.07119344174861908
-0.041844677180051804
0.08823973685503006
-0.10200736671686172
-0.01820886880159378
-0.054217781871557236
0.06635341793298721
0.01496681198477745
-0.09671650826931
0.050511330366134644
-0.045951034873723984
0.04555103927850723
-0.08472560346126556
0.08690153062343597
-0.10869444161653519
-0.07683063298463821
0.08212458342313766
0.054728005081415176
-0.03744378313422203
-0.06145843490958214
0.03614049032330513
-0.09707088768482208
0.04254899173974991
0.08818536251783371
0.09807923436164856
0.017308684065937996
0.008534826338291168
0.10731421411037445
0.11018500477075577
0.051226332783699036
-0.03941333293914795
0.04652221500873566
-0.1134398803114891
-0.044148363173007965
-0.009449725970625877
-0.10527161508798599
0.019255967810750008
-0.07629954069852829
-0.0003456340346019715
-0.004639477003365755
0.08874031901359558
-0.06495513021945953
-0.055886294692754745
-0.06279486417770386
0.04373655095696449
-0.018776629120111465
-0.025244446471333504
0.07624761760234833
0.0548141747713089
-0.08611810952425003
0.06408994644880295
-0.09629401564598083
0.014256439171731472
0.06966597586870193
0.029464218765497208
0.10790637135505676
0.1166497990489006
0.0818832740187645
-0.08846615999937057
-0.08633016049861908
0.0560888834297657
-0.0751972645521164
0.08964930474758148
-0.03513839468359947
0.058568019419908524
-0.016273610293865204
-0.016621453687548637
0.019437726587057114
0.07526323944330215
-0.003221116028726101
0.042219534516334534
-1.2960529602423776e-05
0.027690382674336433
0.08400654047727585
0.0029633052181452513
-0.04900456592440605
-0.10669665038585663
0.039633460342884064
-0.10113068670034409
0.06266125291585922
-0.03775551915168762
0.06518964469432831
-0.07244321703910828
0.0523768849670887
0.043414633721113205
-0.057302966713905334
-0.012983085587620735
-0.0960528701543808
0.03366910666227341
0.08717096596956253
-0.07165215909481049
0.10100177675485611
-0.003206192282959819
0.08015672862529755
-0.058724578469991684
