-0.05629968270659447
-0.03557134419679642
-0.009881144389510155
0.04064144939184189
-0.0426093153655529
0.06611009687185287
-0.018223576247692108
0.028623852878808975
0.05788386985659599
0.013112499378621578
0.046097807586193085
-0.0010733959497883916
-0.03932884335517883
0.0035343123599886894
-0.0028031575493514538
0.021883856505155563
-0.04458922520279884
0.07735467702150345
-0.06848118454217911
0.09348069131374359
-0.029400311410427094
-0.12162482738494873
0.09507866948843002
0.01363263837993145
-0.01415969617664814
0.023909565061330795
-0.009079545736312866
0.047825753688812256
-0.01668621599674225
0.11020230501890182
0.02300436794757843
0.06409148126840591
-0.045276567339897156
-0.019501712173223495
-0.024591553956270218
0.09727566689252853
-0.006826265715062618
0.05203237012028694
0.05159643664956093
-0.04981020838022232
-0.011136075481772423
0.021758411079645157
0.0007338382420130074
-0.02894960157573223
0.07337944954633713
0.018642036244273186
-0.026142913848161697
0.02532772347331047
-0.0024373463820666075
-0.060601700097322464
-0.015192084014415741
-0.015564868226647377
-0.03593675419688225
0.0769534558057785
-0.02138550579547882
-0.04022718966007233
0.006017052102833986
-0.03893739730119705
-0.014572268351912498
0.018144914880394936
0.015476350672543049
-0.012509439140558243
-0.07843571901321411
-0.016583047807216644
