0.05194098874926567
0.01784791797399521
0.06193425506353378
0.11275510489940643
-0.009630373679101467
0.07919389009475708
-0.07708398997783661
0.00594280706718564
-0.04444228857755661
0.08831506967544556
-0.0467023104429245
0.03782565891742706
0.11625204235315323
0.08891836553812027
0.09545975178480148
0.02271137200295925
0.033529043197631836
-0.08789455890655518
-0.07975717633962631
-0.051459383219480515
-0.020332058891654015
-0.05724472552537918
0.13177399337291718
0.1116252988576889
-0.08423608541488647
0.04720115289092064
0.11682436615228653
0.0438430979847908
0.10663503408432007
0.09474164992570877
0.10239428281784058
-0.05962373688817024
-0.129977285861969
0.005148383788764477
0.11370270699262619
0.12049859762191772
0.023900168016552925
0.14153219759464264
0.07103520631790161
0.0002743203076533973
-0.06381113082170486
0.004578066989779472
-0.08608075231313705
-0.12456009536981583
-0.12772803008556366
0.04463950917124748
-0.12474676966667175
-0.12281949073076248
-0.07434188574552536
-0.058981578797101974
0.06556069105863571
0.11182525008916855
-0.018079787492752075
-0.0020716453436762094
0.04309777170419693
0.08663468062877655
0.09077306091785431
-0.04491683468222618
0.0015893693780526519
0.13032984733581543
-0.030843278393149376
-0.029657309874892235
-0.12365824729204178
-0.0968254879117012
0.011252648197114468
0.10966428369283676
-0.021439561620354652
-0.013128180056810379
0.03494127467274666
-0.052061159163713455
0.06344735622406006
0.012958445586264133
0.005166759714484215
0.10039795190095901
0.03826168179512024
-0.030195504426956177
0.07458982616662979
0.03117889165878296
0.02987045980989933
0.10795308649539948
-0.08696439862251282
0.09297510981559753
-0.04133353754878044
-0.04888450354337692
-0.037439920008182526
0.005498977843672037
-0.030470650643110275
-0.036663636565208435
0.0023322375491261482
-0.014411475509405136
0.11522331088781357
-0.11767522990703583
0.1517845243215561
-0.1064831092953682
0.12546516954898834
0.0029007403645664454
0.03586108982563019
-0.05241863802075386
0.10805103927850723
0.1197979748249054
0.05730225890874863
-0.050944603979587555
-0.0790242850780487
0.101985402405262
0.010327178984880447
0.08852242678403854
-0.04239562898874283
0.05988173186779022
0.007326366845518351
0.0955999568104744
0.06595811247825623
0.10035702586174011
-0.09051083773374557
0.03877079859375954
-0.12132858484983444
-0.01331039797514677
-0.007815585471689701
0.04851844906806946
-0.031796179711818695
0.046780724078416824
-0.028712892904877663
-0.16753904521465302
-0.046660248190164566
-0.039316222071647644
0.12913192808628082
-0.0855049416422844
0.09461597353219986
-0.029886387288570404
0.10404041409492493
0.004569872282445431
0.13080602884292603
0.004231574013829231
-0.08930940181016922
0.05202215164899826
0.036990754306316376
0.10638562589883804
0.07371614873409271
-0.13573546707630157
0.0444541871547699
-0.02458829991519451
-0.039751458913087845
0.03976156935095787
-0.06699816882610321
0.058576811105012894
-0.05898645147681236
-0.12033173441886902
-0.09643758088350296
-0.02938232757151127
-0.04454717040061951
-0.11522822082042694
-0.09556545317173004
-0.0384545661509037
-0.044974274933338165
-0.00722037348896265
-0.02169029414653778
-0.08585480600595474
0.10317804664373398
0.11386954039335251
-0.06602071225643158
-0.00947902537882328
-0.03689771518111229
0.01642468012869358
-0.0964561179280281
0.06880731135606766
-0.07665476948022842
0.136705681681633
0.0920017883181572
-0.09634879231452942
0.034354086965322495
0.06969436258077621
0.008920323103666306
0.08129794895648956
-0.08645254373550415
-0.11298035830259323
0.09158401936292648
-0.0694737657904625
0.04759523645043373
0.04815398529171944
0.042174357920885086
-0.04055091366171837
-0.016561215743422508
0.06039760634303093
-0.026274070143699646
-0.0553671196103096
-0.09742280095815659
0.09701254963874817
-0.0034632335882633924
-0.09101714938879013
-0.009168517775833607
0.06726764887571335
0.03808565065264702
0.007353037130087614
