0.1297496259212494
0.02450220286846161
-0.11024046689271927
-0.04931945726275444
-0.1196618527173996
0.12570472061634064
-0.09743736684322357
-0.12123710662126541
0.12506362795829773
-0.006457034032791853
-0.11356107145547867
0.0685131773352623
-0.13606873154640198
-0.008771749213337898
0.10804086923599243
0.21723231673240662
-0.11696414649486542
-0.08724450320005417
-0.14174537360668182
0.0300759170204401
0.14269886910915375
-0.10215827822685242
0.07538212090730667
-0.00014085289149079472
-0.11253529787063599
-0.10386204719543457
-0.14028213918209076
-0.0861315205693245
0.048313725739717484
0.06480700522661209
-0.03227842599153519
0.003790492657572031
-0.13534733653068542
0.11264317482709885
-0.000564210640732199
-0.11273905634880066
-0.20526841282844543
0.013212009333074093
0.034871675074100494
0.06457193195819855
-0.029504945501685143
0.04665523022413254
0.024425992742180824
-0.036682285368442535
-0.08854427933692932
-0.07796518504619598
0.03548480197787285
-0.056583061814308167
-0.011768425814807415
0.005084493197500706
-0.007995100691914558
0.020010631531476974
-0.020062506198883057
0.04061632230877876
-0.07340927422046661
0.07014977931976318
-0.1370963454246521
-0.05049983039498329
-0.02918633259832859
0.05445503443479538
0.06606907397508621
0.07794390618801117
0.02591286227107048
0.16051222383975983
-0.0817720964550972
-0.0892154723405838
-0.12982021272182465
-0.06229545921087265
-0.06887859851121902
-0.15486948192119598
0.11939375102519989
0.010555691085755825
-0.06860557198524475
-0.02785562165081501
-0.10185033082962036
-0.08546653389930725
0.1716984659433365
0.08115531504154205
0.08562278747558594
-0.12285063415765762
0.12969009578227997
-0.16943225264549255
-0.034808799624443054
0.10674620419740677
-0.04629362002015114
-0.087422676384449
-3.2177078537642956e-05
-0.04244891554117203
0.0659543052315712
0.1297714114189148
-0.0727333053946495
-0.049754850566387177
0.10270335525274277
0.12693867087364197
0.000567128648981452
0.12086991965770721
0.06997492909431458
0.034480851143598557
0.009921413846313953
0.1299409568309784
-0.08480098098516464
0.06259997189044952
0.023732703179121017
0.13478900492191315
-0.08222239464521408
-0.12693624198436737
-0.09052765369415283
-0.03253917396068573
0.004022202920168638
0.05064854398369789
0.11104054749011993
-0.1575939655303955
0.031931065022945404
0.07928206771612167
0.06348107010126114
-0.07710769772529602
-0.07207626849412918
-0.019844597205519676
-0.09156151115894318
0.032705891877412796
0.1292133629322052
0.10705909878015518
0.007463980466127396
0.0888245552778244
0.17086735367774963
-0.17325855791568756
0.03138110414147377
0.0021989145316183567
